digraph Tree {
node [shape=box] ;
0 [label="X[6] <= -1.5779\nentropy = 0.5603\nsamples = 145\nvalue = [126, 19]"] ;
1 [label="X[100] <= 0.022\nentropy = 0.7219\nsamples = 10\nvalue = [2, 8]"] ;
0 -> 1 [labeldistance=2.5, labelangle=45, headlabel="True"] ;
2 [label="entropy = 0.0\nsamples = 2\nvalue = [2, 0]"] ;
1 -> 2 ;
3 [label="entropy = 0.0\nsamples = 8\nvalue = [0, 8]"] ;
1 -> 3 ;
4 [label="X[58] <= 0.5211\nentropy = 0.4074\nsamples = 135\nvalue = [124, 11]"] ;
0 -> 4 [labeldistance=2.5, labelangle=-45, headlabel="False"] ;
5 [label="X[116] <= 0.2965\nentropy = 0.8015\nsamples = 41\nvalue = [31, 10]"] ;
4 -> 5 ;
6 [label="X[19] <= 0.0169\nentropy = 0.9799\nsamples = 24\nvalue = [14, 10]"] ;
5 -> 6 ;
7 [label="X[102] <= 0.4598\nentropy = 0.6962\nsamples = 16\nvalue = [13, 3]"] ;
6 -> 7 ;
8 [label="X[77] <= 0.8824\nentropy = 0.3712\nsamples = 14\nvalue = [13, 1]"] ;
7 -> 8 ;
9 [label="entropy = 0.0\nsamples = 13\nvalue = [13, 0]"] ;
8 -> 9 ;
10 [label="entropy = 0.0\nsamples = 1\nvalue = [0, 1]"] ;
8 -> 10 ;
11 [label="entropy = 0.0\nsamples = 2\nvalue = [0, 2]"] ;
7 -> 11 ;
12 [label="X[79] <= 0.883\nentropy = 0.5436\nsamples = 8\nvalue = [1, 7]"] ;
6 -> 12 ;
13 [label="entropy = 0.0\nsamples = 7\nvalue = [0, 7]"] ;
12 -> 13 ;
14 [label="entropy = 0.0\nsamples = 1\nvalue = [1, 0]"] ;
12 -> 14 ;
15 [label="entropy = 0.0\nsamples = 17\nvalue = [17, 0]"] ;
5 -> 15 ;
16 [label="X[40] <= 1.8606\nentropy = 0.085\nsamples = 94\nvalue = [93, 1]"] ;
4 -> 16 ;
17 [label="entropy = 0.0\nsamples = 93\nvalue = [93, 0]"] ;
16 -> 17 ;
18 [label="entropy = 0.0\nsamples = 1\nvalue = [0, 1]"] ;
16 -> 18 ;
}